svm_type c_svc
kernel_type polynomial
degree 2
gamma 0.5
coef0 1.0E-9
nr_class 2
total_sv 13
rho 1.598427847083799
label 8 3
nr_sv 5 8
SV
1.0 1:19.0 2:27.9 3:0.0 
1.0 1:62.0 2:26.29 3:0.0 
0.8055939571590586 1:27.0 2:42.13 3:0.0 
1.0 1:30.0 2:35.3 3:0.0 
1.0 1:34.0 2:31.92 3:1.0 
-0.5173016336086604 1:18.0 2:33.77 3:1.0 
-0.734502876722539 1:32.0 2:28.88 3:0.0 
-0.4646552627274857 1:60.0 2:25.84 3:0.0 
-1.0 1:23.0 2:34.4 3:0.0 
-0.20279333060185104 1:56.0 2:39.82 3:0.0 
-0.4732248618104054 1:52.0 2:30.78 3:1.0 
-0.4131159916879992 1:60.0 2:36.005 3:0.0 
-1.0 1:18.0 2:34.1 3:0.0 
