svm_type c_svc
kernel_type rbf
degree 4
gamma 0.5
coef0 1.0
nr_class 2
total_sv 6
rho 0.07949817180633545
label 3 1
nr_sv 3 3
SV
0.007 1:0.21751 2:0.49433 3:1.333 4:1.4444
1.0 1:0.23078 2:0.51545 3:2.333 4:2.4444
0.5 1:0.22071 2:0.51669 3:3.333 4:3.4444
-0.333 1:0.21233 2:0.46617 3:4.333 4:4.4444
-1.0 1:0.22696 2:0.49682 3:5.333 4:5.4444
-0.02 1:0.22651 2:0.48274 3:6.333 4:6.4444
